le_net5/conv2d/kernel:0
(3, 3, 3, 10)
[[[[ 0.23001924 -0.08448984  0.06175669  0.0356534   0.04454743
     0.11111601  0.07733435 -0.28984123 -0.35389224  0.2639188 ]
   [ 0.0497584  -0.05731414  0.12136676  0.23722586  0.16941866
    -0.05047506 -0.17117384  0.05215799 -0.39081222 -0.05173547]
   [ 0.26329666  0.05191827 -0.22756304  0.27707186  0.16002
     0.20396405 -0.09940698 -0.07864594 -0.394177    0.0742803 ]]

  [[-0.09062082  0.01648993 -0.10179393  0.01149955 -0.12274841
    -0.37938172 -0.1718303   0.19573069 -0.25319013  0.3004869 ]
   [ 0.20297226  0.21349317  0.10328802  0.01050873 -0.17979771
    -0.23809843 -0.38583302  0.10233292 -0.04150804 -0.09532782]
   [ 0.02227667  0.16974886 -0.1537022  -0.05756252 -0.2942046
    -0.24665128 -0.34570193  0.34795424 -0.03773123  0.34363207]]

  [[ 0.12828803  0.27684996 -0.01130565  0.2676926  -0.24637628
    -0.2312542   0.1018305   0.15453535 -0.12885776  0.24390051]
   [ 0.03432371  0.20182589 -0.20005487  0.2619929   0.17998935
    -0.18586634 -0.30396742  0.2982263  -0.01974973  0.30243763]
   [-0.10480101 -0.1319485   0.13069955  0.2132455  -0.18260539
    -0.35751957 -0.04723909  0.28962383 -0.27693534  0.03757485]]]


 [[[-0.34597707  0.3379657   0.23843578  0.30521536  0.01338253
     0.01824785 -0.28969792  0.23207699 -0.11371942 -0.23984091]
   [-0.43853745  0.32972303  0.16355896  0.34115893 -0.27363253
     0.08165776 -0.07301236  0.26957652 -0.06711191 -0.39314315]
   [-0.11413816  0.33658567  0.40502194  0.34772182 -0.2672735
    -0.12129482  0.04234117  0.04509728 -0.30226967 -0.33068565]]

  [[-0.47507802  0.16539864  0.28345522  0.3006697  -0.4823116
    -0.45455265 -0.39966464  0.3344228  -0.5216928  -0.13424946]
   [-0.468409    0.2767889   0.2290041   0.18855783 -0.2547832
    -0.3423907  -0.19682327  0.18917114 -0.35696682 -0.09544852]
   [-0.34072053  0.27077287  0.27132717  0.39997286 -0.48111156
    -0.56700873 -0.360282    0.2738171  -0.3467982  -0.30287084]]

  [[-0.24113013  0.39440057  0.03893391 -0.03172246 -0.40794885
    -0.33894527 -0.22648235  0.23379153 -0.19548741 -0.42011958]
   [-0.10495153  0.2209754   0.26349398  0.06807066 -0.40054616
    -0.17877828 -0.19180557  0.44367343 -0.24988765 -0.05834089]
   [-0.19320032  0.10522798  0.39004532  0.38907686 -0.40951636
    -0.12405848 -0.3753093   0.4014902  -0.15176283 -0.41424868]]]


 [[[-0.12176636  0.37743694  0.3099305   0.2575492  -0.12943693
    -0.22854745  0.20577575 -0.17623203 -0.20065962 -0.44348297]
   [-0.13576372  0.18494219  0.43139392  0.05415083 -0.06513961
    -0.15905571 -0.12148596 -0.02660212 -0.11165426 -0.32946283]
   [-0.25207344  0.00350579  0.35991713 -0.02731409 -0.22448412
    -0.23817225 -0.14879394 -0.14064799 -0.05205719 -0.33073547]]

  [[-0.09681354  0.14527     0.47740567  0.07772071 -0.10800309
    -0.05728696  0.01148853  0.10097145  0.06780002 -0.58666885]
   [-0.5211302   0.26821384  0.26352784  0.21364583 -0.21760574
     0.04319282 -0.1130926   0.17875859  0.0101691  -0.34643233]
   [-0.31416124  0.17533377  0.10222547  0.32925344  0.05543024
    -0.2197847  -0.1544284   0.05642472  0.0998292  -0.23654482]]

  [[-0.3839887   0.3683254   0.42391682  0.1723462  -0.01808533
    -0.02152688 -0.3409816   0.17234164 -0.2843644  -0.47944167]
   [-0.3716483   0.15331185  0.32567397  0.02626049 -0.0251229
     0.09182661 -0.28029516  0.3494833  -0.05875875 -0.3634813 ]
   [-0.24053408  0.16723546  0.33827403  0.03979474 -0.04918928
     0.09484194 -0.16151987  0.37343615 -0.27000567 -0.31491584]]]]
le_net5/conv2d/bias:0
(10,)
[ 0.6286417  -0.41367516 -0.43111363 -0.4406198   0.5992481   0.5851924
  0.5631831  -0.6407582   0.5873029   0.5460292 ]
le_net5/conv2d_1/kernel:0
(3, 3, 10, 20)
[[[[-2.15143159e-01  1.23808205e-01  2.75707364e-01 ...  1.05220534e-01
     6.15134798e-02 -5.04223108e-02]
   [ 1.41473666e-01  7.23552257e-02 -3.73308182e-01 ...  4.54979064e-03
    -1.51530236e-01  6.61275834e-02]
   [ 1.53393358e-01  9.61610973e-02 -2.16763377e-01 ...  1.45374462e-02
    -1.22357562e-01 -4.50971425e-02]
   ...
   [ 5.70862629e-02 -3.76580209e-02 -3.06441277e-01 ... -1.68603912e-01
    -1.17628247e-01  2.09257137e-02]
   [-3.11945468e-01 -1.93746075e-01  2.31065199e-01 ...  3.69257629e-01
     2.75217235e-01 -1.44830644e-01]
   [-1.16759211e-01  1.28911883e-01  3.61942917e-01 ...  9.23317820e-02
     2.92815655e-01 -1.56821802e-01]]

  [[-6.35385036e-01  8.69139582e-02  4.37877417e-01 ...  5.97521365e-02
    -4.00474042e-01 -4.20006216e-01]
   [ 9.28886607e-02 -2.82246709e-01 -1.19883291e-01 ... -8.11308101e-02
     6.64706677e-02  2.00685561e-02]
   [ 1.63007975e-01 -2.71384627e-01 -3.28561395e-01 ...  3.67893465e-03
     2.34929353e-01  2.08919778e-01]
   ...
   [ 1.04957610e-01 -1.90359503e-01 -1.11494839e-01 ... -5.91150299e-02
     1.20958023e-01  1.03022694e-03]
   [-5.01183271e-01  2.34432250e-01  2.89749682e-01 ...  2.05730259e-01
    -1.42141193e-01 -4.24989671e-01]
   [-5.09134591e-01  2.98502207e-01  2.12811604e-01 ... -1.66981786e-01
    -2.66180247e-01 -5.46916902e-01]]

  [[-3.23467880e-01 -9.88875106e-02 -5.00658974e-02 ... -1.23131879e-01
    -3.71382385e-01 -1.68668941e-01]
   [ 2.43759245e-01 -2.21619196e-02 -1.38450280e-01 ...  1.14673547e-01
     1.85949132e-01  1.59943905e-02]
   [ 9.93197039e-02 -4.32841703e-02 -1.34602338e-01 ...  8.94125775e-02
     9.04294178e-02 -2.39626784e-03]
   ...
   [-4.21187468e-02  2.07756311e-01  1.09981313e-01 ...  1.88545093e-01
     1.27595693e-01  1.08177923e-01]
   [-4.68456686e-01  2.11795941e-02 -1.39259428e-01 ... -4.31369245e-02
    -4.20874208e-01 -2.42840573e-01]
   [-3.73449743e-01  1.07919157e-01  7.71612450e-02 ... -5.61405607e-02
    -3.85804236e-01 -3.34945172e-01]]]


 [[[-1.62302032e-01  2.18369424e-01  2.35175028e-01 ... -9.88859683e-02
     8.56117830e-02 -1.67985767e-01]
   [ 7.01934248e-02 -4.37738150e-02 -2.94126481e-01 ...  9.05087441e-02
    -1.27691299e-01  9.67177972e-02]
   [-6.39825612e-02  6.22594357e-02 -3.75650853e-01 ...  1.64639920e-01
    -7.72480294e-02  1.67123929e-01]
   ...
   [-9.62160081e-02 -1.38600782e-01 -2.30453730e-01 ...  1.74827620e-01
     1.26999915e-01  1.17254421e-01]
   [ 1.35490801e-02  2.26327069e-02  2.56394804e-01 ...  4.63836268e-02
     1.74648345e-01 -2.53837695e-03]
   [-2.01000273e-01  2.69616157e-01  2.82257825e-01 ... -1.67610839e-01
    -1.66643992e-01 -1.30983561e-01]]

  [[-5.33922017e-01  3.60140592e-01  3.89522791e-01 ... -2.30760410e-01
    -3.31391394e-01 -3.94300312e-01]
   [ 3.71858701e-02 -1.68782800e-01 -1.38777927e-01 ...  1.75834596e-01
     4.00778204e-02  2.00581998e-01]
   [ 2.66230166e-01 -2.49248773e-01 -1.33438319e-01 ...  7.33410120e-02
     1.52589485e-01  5.34455702e-02]
   ...
   [ 1.98398326e-02 -2.25671366e-01 -3.97129171e-03 ...  3.20069700e-01
     7.84031302e-02  6.83975741e-02]
   [-6.80963218e-01  4.80073363e-01  5.12099087e-01 ... -3.41462672e-01
    -3.11645210e-01 -2.70352364e-01]
   [-5.54163456e-01  5.53304434e-01  4.58647907e-01 ... -3.88281822e-01
    -3.43437493e-01 -4.75128740e-01]]

  [[-4.70694870e-01  2.27351561e-01 -2.72101223e-01 ... -2.76010305e-01
    -3.17162514e-01  1.32458117e-02]
   [ 2.21449971e-01 -1.08965240e-01  1.28207564e-01 ...  2.60348976e-01
     1.48474321e-01  5.03227301e-03]
   [ 2.43420541e-01 -2.37895459e-01  1.76570863e-01 ...  3.29075992e-01
     2.12777629e-02 -9.00594285e-04]
   ...
   [ 1.02651834e-01  1.29979283e-01  1.75138772e-01 ...  2.06472382e-01
     1.26379579e-02  1.19158134e-01]
   [-2.52692968e-01  7.42664188e-02 -1.91463828e-01 ... -3.95429403e-01
    -1.73337221e-01 -1.99113414e-01]
   [-2.84672081e-01  1.96788877e-01 -2.19105780e-02 ... -4.04986650e-01
    -2.97711849e-01 -2.20684707e-01]]]


 [[[-1.12790428e-01  1.26532048e-01  1.79933876e-01 ... -3.66849631e-01
    -2.08551452e-01 -1.93794504e-01]
   [ 1.28463227e-02 -1.68243527e-01 -1.52939647e-01 ...  1.06349714e-01
     1.36349976e-01  2.72410423e-01]
   [ 2.30485648e-01  1.02567121e-01 -2.59741843e-01 ...  3.54245573e-01
     1.41645595e-01  1.16721898e-01]
   ...
   [ 1.19394712e-01  1.75391547e-02 -3.26612033e-03 ...  1.67811006e-01
     9.71453711e-02  2.24412426e-01]
   [ 1.78736281e-02  7.30267689e-02  1.90416291e-01 ... -1.30131051e-01
    -1.85709834e-01 -1.84039146e-01]
   [-6.33568093e-02  1.40667766e-01 -7.91858137e-02 ... -1.69275954e-01
    -3.42875004e-01 -2.97916561e-01]]

  [[-7.90997267e-01  2.25289941e-01  1.14368282e-01 ... -5.99816561e-01
    -5.22927642e-01 -5.24309039e-01]
   [ 3.11062038e-01 -3.77901852e-01 -4.30355896e-04 ...  3.90989780e-01
     2.53043920e-01  2.44073749e-01]
   [ 2.11633638e-01 -3.22906524e-01 -6.20790645e-02 ...  4.06460762e-01
     9.84971374e-02  2.44220674e-01]
   ...
   [ 2.41758689e-01 -2.77276397e-01 -9.15063247e-02 ...  2.94142783e-01
     3.56212296e-02  2.03030661e-01]
   [-4.59534854e-01  4.52496737e-01  2.19832033e-01 ... -4.98761117e-01
    -4.10129160e-01 -5.47472358e-01]
   [-5.52702248e-01  2.90505946e-01 -1.41836107e-01 ... -5.47324479e-01
    -5.45927227e-01 -4.40880299e-01]]

  [[-5.29026508e-01  1.66266888e-01 -3.28982800e-01 ... -4.27402854e-01
    -3.65445822e-01 -1.75331295e-01]
   [ 2.89982520e-02  1.03110103e-02  8.04257989e-02 ...  3.65884870e-01
     2.54450053e-01  1.12249807e-01]
   [ 4.12282310e-02 -2.52251893e-01  1.93297133e-01 ...  2.12320596e-01
     2.49541670e-01 -5.98535798e-02]
   ...
   [ 9.00560319e-02 -7.59136975e-02  4.07860465e-02 ...  1.55514807e-01
     5.73306233e-02 -6.31434098e-02]
   [-5.24409652e-01  1.29054770e-01 -3.20409477e-01 ... -5.12511790e-01
    -3.70998085e-01 -2.10775472e-02]
   [-4.07512277e-01  1.60052869e-02 -3.55328500e-01 ... -3.55645418e-01
    -2.28451744e-01 -2.86473215e-01]]]]
le_net5/conv2d_1/bias:0
(20,)
[-0.03435278  0.03633291 -0.02020463  0.06115474 -0.05663604  0.07799256
 -0.08516255 -0.03186787  0.04307733  0.0071116  -0.01748009 -0.08444306
 -0.01963968 -0.01248577 -0.0326243  -0.00594406 -0.02798238  0.03004476
  0.00554646  0.03924464]
le_net5/dense/kernel:0
(980, 1000)
[[ 0.1516112   0.00330298  0.03988146 ... -0.07071745  0.0631697
   0.06386289]
 [-0.06010148 -0.01982367  0.02649702 ... -0.02318684  0.04903553
   0.04318111]
 [-0.01001436  0.03701465 -0.03675973 ...  0.02546173  0.02350987
   0.04782803]
 ...
 [ 0.04321009 -0.04898494  0.09397612 ...  0.08511401  0.04221043
   0.13574517]
 [ 0.07646175  0.0107303   0.01288872 ... -0.00331113  0.02984395
   0.04343392]
 [ 0.05331011 -0.02638914  0.07747135 ...  0.0231019  -0.04204052
   0.0440899 ]]
le_net5/dense/bias:0
(1000,)
[ 1.88486290e-03 -1.03528472e-02 -9.49597545e-03 -8.00895225e-03
  2.85194139e-04  1.25819561e-03  5.34950336e-03 -1.36924889e-02
  1.40446788e-02 -1.88190595e-03 -8.72360729e-03 -4.98034293e-03
  8.68445355e-03 -1.02124251e-02  6.33150712e-03 -1.22462716e-02
  3.27899563e-03  8.89364601e-05  2.57814513e-03 -1.10684545e-03
 -4.80100187e-03  2.02283002e-02 -7.01393979e-03 -1.71101652e-03
 -1.40627678e-02 -1.11169880e-02 -5.59302187e-03  4.26356168e-03
  7.92452367e-04 -1.09069108e-04  1.31029626e-02 -6.57837419e-03
 -2.34232494e-03 -4.14298102e-03 -4.87867929e-03 -4.39295638e-03
  5.83735527e-03  1.44314850e-02  2.23112851e-03  8.61416478e-03
 -1.28442573e-03  1.48510886e-02  1.05969869e-02 -7.18146702e-03
 -5.93473203e-03 -3.91900167e-03  1.01583451e-02 -1.24744941e-02
 -1.82314578e-03 -3.17593664e-03 -1.44277362e-03 -7.90576730e-03
  1.43345736e-04 -9.65550914e-03  4.56314627e-03  1.53850683e-03
  1.20262681e-02  3.02343210e-03 -9.30873863e-03 -1.59261450e-02
  7.56737893e-04  2.24823738e-03  5.33269206e-03  5.53235004e-04
 -8.95485049e-04 -9.31140874e-03  4.30048443e-03 -2.01317621e-03
 -5.92356129e-03  2.53779977e-03 -7.14039523e-03  5.41967433e-03
 -5.11592254e-03 -2.43162783e-03 -1.27111445e-03 -1.25507275e-02
 -1.25586456e-02 -8.44189432e-03 -2.75136274e-03  9.56762489e-03
  5.71798394e-03  3.39840632e-03 -1.28107285e-03 -1.61899310e-02
  3.41996318e-03 -1.68542769e-02  1.01220924e-02  1.32346535e-02
  7.39117432e-03  1.32153835e-02  6.36195485e-03  7.48571986e-03
 -1.27137108e-02 -9.95224528e-03  2.35399185e-03  1.43030891e-02
 -1.47587480e-03 -1.45009439e-02 -8.96942522e-03  8.68996698e-03
  2.02692505e-02  2.41306028e-03  1.25703141e-02 -5.92545490e-04
 -9.51525383e-03 -2.37547397e-03 -2.58145062e-03 -7.27962283e-03
  4.22936311e-04  9.27571091e-04 -8.30107369e-03 -1.54988300e-02
  8.16481002e-03  4.54689469e-03  1.24515244e-03  7.12097716e-03
  1.93368352e-04 -5.28118154e-03 -3.75764165e-03 -4.62888228e-03
  5.61970612e-03  1.07238989e-03  8.38044751e-03 -9.00250208e-03
  3.84529075e-03  1.93242406e-04 -7.04122987e-03 -1.04888817e-02
 -6.56726025e-03 -7.40425254e-04 -4.68699523e-04  4.31672391e-03
 -1.19155869e-02 -3.06613510e-03 -5.92374569e-03 -1.44311739e-03
  3.46445478e-03 -1.25910453e-02  9.24777938e-04 -1.58483144e-02
  1.17948242e-02  5.22792386e-03 -1.28651736e-02 -7.98976514e-03
  3.80709302e-03  3.36406659e-03 -6.15293859e-04 -1.65722482e-02
  1.65866083e-03  5.50249498e-03 -2.03907639e-02 -6.65293820e-03
 -1.14905369e-02 -1.63018461e-02  7.29084481e-03 -6.82782941e-03
 -4.47009038e-03 -8.62448290e-03 -8.74008704e-03  5.81451133e-03
 -2.33394676e-03  2.31617969e-02  4.36912756e-03 -3.08969198e-03
 -7.04432698e-03 -1.72241684e-02  3.40410159e-03 -6.71605300e-03
 -1.25203673e-02  1.04899891e-02 -3.02484515e-03 -5.81792183e-03
 -8.75901151e-03  1.34657323e-02  8.26710556e-03 -7.02080550e-03
  2.93471781e-03 -6.58468856e-03  2.34432425e-03 -9.65041108e-03
 -5.06805780e-04  1.13334730e-02  2.47536460e-04 -4.15426679e-03
 -1.06620034e-02 -1.04185827e-02 -3.61839356e-03 -5.69744175e-03
  1.06062414e-02 -2.92817038e-03  3.11155221e-03 -4.48629959e-03
  3.98073392e-03 -1.18912803e-02  2.21602269e-03 -5.93537930e-03
  7.78564438e-03  4.70924098e-03  9.10289120e-03  7.36747961e-03
 -8.50544591e-03 -1.53491710e-05 -1.08989689e-03  1.50323799e-02
 -7.93262850e-03 -1.92145735e-03 -2.60280888e-03 -1.10822571e-02
 -6.35705655e-03 -1.27610890e-02  4.65146359e-03  1.16989238e-03
  3.97471106e-03 -1.00781592e-02  2.21877522e-03  4.54666279e-03
  3.29835573e-03  8.44486896e-03 -8.26942967e-04 -1.36666084e-02
 -6.93430612e-03  1.35271326e-02 -3.02779418e-03  1.01762088e-02
 -1.44930137e-02 -7.50717055e-03 -1.79265700e-02 -1.04258060e-02
 -8.43761861e-03 -4.49209707e-03  4.65328631e-04 -1.02008684e-02
  8.10651015e-03 -5.49517060e-03 -1.52569974e-03 -6.13614777e-03
 -8.71708617e-03  1.17363026e-02 -4.95566940e-03  2.30959686e-03
 -8.74855649e-03 -3.73688131e-03  1.05813630e-02  6.45313459e-03
 -1.01864869e-02  4.07304894e-03 -8.52822140e-03 -1.70762353e-02
  1.30005134e-02  9.27241577e-04 -7.72227440e-03 -7.77717121e-03
 -1.78768877e-02 -7.42042530e-03 -3.36545869e-03 -3.06378305e-03
  1.83049578e-03  4.67822701e-03  1.54378195e-03 -1.66883692e-02
 -7.24292872e-03  8.35095067e-04 -5.22680093e-05 -1.54133970e-02
 -7.39019946e-04  4.17137705e-03 -7.44589698e-03 -1.14761684e-02
  6.37825346e-03 -3.93844722e-03 -7.01259123e-03 -6.83556602e-04
 -5.45386272e-03 -5.76751260e-03  4.63128649e-03  1.42840520e-02
 -5.83588518e-03  9.76048817e-04 -7.82105699e-03 -6.29911991e-03
  9.12738778e-03 -3.86232168e-05 -9.99195967e-03 -1.06835132e-02
  1.56492013e-02  9.33982525e-03 -8.55321530e-03 -6.15179772e-03
 -7.30932038e-03 -1.92203512e-03 -1.08821029e-02  1.40510220e-03
 -6.57191034e-03 -7.52116321e-03 -6.72180206e-03 -8.86682980e-03
 -5.48626389e-03 -6.26315363e-03 -1.54896360e-02 -8.97548813e-03
 -1.16137986e-03  2.62594456e-03  1.03426566e-02  1.38594699e-03
  7.13213207e-03  1.01435557e-02 -9.29725170e-03 -2.47841841e-03
  5.23903547e-03 -3.74785066e-03  5.04888641e-03  1.81430415e-03
  1.32813561e-03 -4.62996867e-03 -1.24703050e-02  1.69783588e-02
  1.33398110e-02 -3.30600073e-03  4.47100680e-03  1.92579743e-03
  1.60254873e-02  9.57599096e-03 -1.84798371e-02 -1.71720479e-02
 -1.95986079e-03 -1.80578306e-02 -1.21300751e-02  1.44189810e-02
 -6.95036771e-03 -1.68485083e-02  1.88194215e-02 -9.64058843e-03
 -1.34549355e-02  1.60850491e-02 -2.04911386e-03 -1.44230435e-02
 -8.46525375e-03 -8.42909236e-03 -2.36997800e-03  2.64937495e-04
  4.47528623e-03 -4.83807316e-03  4.18295478e-03 -6.49982272e-03
  1.19989049e-02  1.83647953e-03  1.31010627e-02  1.54356356e-03
 -4.15212195e-03  8.60843249e-03  9.52127483e-03 -1.08081643e-02
  7.92928413e-03  2.00940715e-03 -1.71156460e-03 -2.92774709e-03
  3.36173386e-03 -9.69762262e-03 -1.72784794e-02  3.55613156e-04
  5.59290685e-03  4.39496431e-03 -1.22380443e-02 -1.49668101e-02
  2.11091526e-03  1.06488215e-02  7.28349667e-03 -1.02421883e-02
  4.87625040e-03 -2.96111172e-03 -9.47330240e-03 -7.18793646e-03
 -1.54924113e-02 -6.88897679e-03 -4.05439176e-03  1.20541058e-03
 -5.90828760e-03 -1.62920505e-02 -5.79470443e-03  1.06558232e-02
 -3.58363986e-03  1.29007373e-03 -1.51448762e-02  6.41473942e-03
 -2.02786573e-03 -7.88821559e-03 -1.58513081e-03 -1.61138829e-02
 -4.10787435e-03  4.88406513e-03  6.80884346e-04 -3.28990328e-03
  6.41581649e-03  1.17593780e-02 -3.38482601e-03 -3.02402140e-03
  9.61697754e-03  5.15631633e-03 -4.81215451e-04  8.68964475e-03
  7.39393104e-03  1.24346942e-03 -6.57085213e-04 -8.38038418e-03
 -9.66592319e-03 -3.67972185e-03  2.08243728e-03 -7.22202938e-03
 -3.58354021e-03 -1.15331626e-02  4.64257458e-03  1.03126829e-02
 -1.11579280e-02  1.59193412e-03  5.47616836e-03 -5.94864972e-03
  1.16434740e-03 -2.38072895e-03 -9.36669018e-03 -4.53290623e-03
 -4.34433809e-03  5.02793025e-03 -5.53193316e-03 -2.39505386e-03
 -5.41136693e-03  1.23682851e-03  2.66190455e-03 -1.71175804e-02
 -1.34793641e-02  5.26917353e-03 -9.68630426e-03 -8.04046262e-03
 -1.21837165e-02 -5.10924903e-04 -1.32389441e-02  1.47083367e-03
  7.75500108e-03  1.57578997e-02 -5.36400545e-03  1.34037165e-02
 -1.44749996e-03 -1.33203948e-02  5.03585953e-03 -6.76922034e-03
  1.13217477e-02  5.47127519e-03 -6.69727288e-03 -1.11865625e-03
 -9.48490482e-03 -1.03197675e-02 -2.15758104e-03 -2.38273293e-03
  6.11600745e-03 -1.32275736e-02 -9.76432487e-03  5.93708316e-03
  1.22040594e-02  1.26200053e-03 -1.16063152e-02  2.58122385e-03
 -9.64927021e-04  9.75466624e-04 -5.36345877e-03 -7.11691426e-03
  1.00770611e-02  1.38260731e-02 -3.85697023e-03  9.99485236e-03
  4.23708651e-03 -9.59390029e-03  8.47108383e-03 -2.05091424e-02
 -8.89458507e-03 -1.29444208e-02 -6.47785049e-03 -1.42301917e-02
  1.77401584e-02  4.81341220e-03  1.78309623e-03  1.96659938e-02
 -4.17898083e-03  9.18722805e-03  4.01688041e-03 -6.65859459e-03
 -3.43470438e-03 -5.26102120e-03  6.48218812e-03 -8.44470505e-03
 -1.31943962e-02 -1.01985177e-03  9.79207642e-03  2.14631250e-03
  3.35512171e-03 -7.58943427e-03 -1.25621660e-02  9.70891211e-03
 -2.89189164e-04 -9.39873513e-04 -5.31170843e-03  6.59948401e-03
 -6.01643231e-03 -3.66470963e-03 -1.26846582e-02 -1.12724560e-03
  1.21281259e-02  1.48705411e-04 -1.36764068e-02 -1.28730647e-02
 -1.28333457e-02  1.03450790e-02 -1.72924367e-04 -9.66401212e-03
 -7.39830686e-03  1.99814774e-02  1.06125325e-02 -8.07409175e-03
  1.06021641e-02  1.38002187e-02 -1.61626413e-02 -8.12584476e-05
 -4.70444979e-03 -9.31060035e-03 -1.35265170e-02 -1.39539316e-02
  9.07396618e-03 -5.42849163e-03  1.24387720e-04 -4.84356936e-03
  1.25135100e-02 -6.36487082e-03 -8.92036129e-03 -2.50128098e-03
  1.12483576e-02 -1.67954657e-02 -5.24579035e-03 -3.56229069e-03
 -2.25863932e-03 -1.29555026e-03 -1.39560867e-02 -1.31303016e-02
 -5.30665508e-03 -8.98011308e-03 -6.45836676e-03 -2.26418441e-03
  1.25454301e-02  1.90928709e-02 -1.30009314e-03 -5.33322617e-03
 -2.80946610e-03 -4.99875145e-03 -9.14690644e-03 -6.80694403e-03
  2.74048420e-03  1.32363668e-04 -1.45658571e-02 -1.85426846e-02
 -4.55834297e-03  8.77235271e-03 -1.60877928e-02 -8.10572691e-03
 -1.14944531e-02  5.34339761e-03 -5.90336276e-03 -1.69321410e-02
 -2.31923047e-03  7.29544228e-03  2.21857871e-03 -1.10425809e-02
 -1.19371468e-03 -1.18747028e-03 -1.31565016e-02  9.27916728e-03
  1.25168019e-03  3.99811147e-03 -8.57161637e-03 -1.12529229e-02
 -3.29687796e-03 -9.23564751e-03  2.71043833e-03  1.11153778e-02
 -7.64561992e-06 -4.86830622e-03  4.40412713e-03 -1.54951690e-02
  4.92291711e-03 -8.08931142e-03  4.77213785e-03 -6.02952391e-03
 -1.85809284e-03  8.34149960e-03 -8.00789450e-04 -3.30351735e-03
  1.39099155e-02 -7.21244235e-03 -1.10217379e-02 -9.90833249e-03
 -1.11616426e-03  2.49322620e-03  7.09339511e-03 -4.40326706e-03
  6.96427247e-04  7.09597906e-03 -4.29672375e-03  3.06186150e-03
  5.33042243e-03  5.20883175e-03 -1.31641617e-02  1.69746659e-03
 -1.22192390e-02 -9.74029023e-03  6.76893070e-03 -5.81413927e-03
 -4.59709531e-03 -9.30687692e-03 -1.60324592e-02 -4.65541519e-03
 -5.45523409e-03 -9.23896953e-03 -9.52433050e-03 -9.55355261e-03
 -1.11611793e-02  1.12902960e-02 -8.21571238e-03  3.94083839e-03
  1.44313276e-02  4.15095594e-03 -5.70725929e-03 -5.25623420e-03
  1.42875332e-02  6.35563862e-03 -1.44606712e-03 -4.91008069e-03
 -5.80686238e-03 -6.93029771e-03 -8.42986454e-04 -6.86570397e-03
 -1.07405349e-05 -1.11149782e-02  5.93119487e-03  1.54633950e-02
  4.15776437e-03 -7.30544981e-03 -1.33590121e-03 -1.05555244e-02
  9.86639643e-04 -5.57109888e-06 -3.93673684e-03 -2.82181497e-03
 -1.11399963e-02 -1.23459874e-02  1.38031803e-02  4.82968241e-03
 -1.62621643e-02 -1.04992825e-03 -9.79305943e-04 -1.14718946e-02
  2.15449385e-04 -9.22510959e-03  9.30079550e-04  5.78744104e-03
  1.05441194e-02  4.71612997e-03 -1.50295366e-02 -8.09164811e-03
  1.47549540e-03 -1.31337205e-02 -2.93547288e-03  2.58097658e-03
 -1.58078484e-02  6.37454959e-03  5.52529353e-04 -5.52268000e-04
  3.78776668e-03 -1.42083189e-03  2.74547599e-02 -8.26801732e-03
 -1.00491075e-02 -1.37544805e-02  8.93690065e-03 -2.94025260e-04
 -2.98658684e-02  6.86037634e-03 -7.48484675e-03 -5.78554487e-03
 -3.80772026e-03 -9.90457088e-03  4.87997802e-03 -1.05021065e-02
 -1.59384347e-02  1.85026899e-02 -5.12152398e-03 -1.22758057e-02
 -4.52306634e-03 -7.21517298e-03 -4.29266103e-04  6.03024568e-03
  1.96196549e-02  5.20512182e-03 -3.38788668e-04  9.97533370e-03
 -1.43570183e-02 -6.82963198e-03  1.28479139e-03 -1.21813063e-02
  7.20292283e-03  3.18440679e-03 -1.26229459e-02  6.34914311e-03
 -5.12484973e-03 -7.09491409e-03  7.87985604e-03  1.70853231e-02
  2.22995155e-03  8.52114428e-03 -5.06381970e-03 -1.10577196e-02
  2.59894151e-02  5.28832665e-03  1.97548289e-02 -1.22211790e-02
 -1.68049317e-02  5.48240682e-03 -4.36734688e-03 -1.74565706e-02
 -1.39205195e-02 -2.34898366e-03  1.33002526e-03 -6.56796107e-03
 -1.41430032e-02  8.25758651e-03  1.34059484e-03 -1.46474754e-02
 -3.37639661e-03  1.30791496e-03 -2.26128870e-03 -1.30531630e-02
 -9.62855853e-03  3.25822923e-03 -1.97584741e-02 -1.31615587e-02
 -1.04917504e-03 -1.14388848e-02  8.11043847e-03  1.27009349e-02
 -9.34870355e-03  6.74772449e-03 -5.60525944e-03 -3.19104147e-04
  2.24334020e-02  1.82964075e-02  6.69517554e-03 -1.16906557e-02
 -3.24013527e-04 -3.65309836e-03 -2.54655816e-03  5.09536033e-03
 -7.43499910e-03  3.01913545e-03 -1.18278870e-02  2.07831208e-02
  8.92939325e-03 -6.79272087e-03 -3.00347951e-04 -1.18867762e-03
 -1.43648470e-02 -8.58993549e-03  1.38856843e-02  9.65989660e-03
 -1.42016564e-03 -6.85159257e-03 -4.86594904e-03 -5.07646939e-03
  5.82929049e-03  2.49996781e-03  4.45023039e-03 -1.24570280e-02
 -9.20623075e-03 -1.16131350e-03 -1.13857128e-02  2.94677378e-03
  5.49769914e-03  1.57519188e-02 -1.23738181e-02  5.12411166e-03
 -4.42392007e-03  7.35053793e-03  1.10901389e-02 -1.41933328e-02
 -1.07530050e-03  8.09953641e-03 -8.66035093e-03 -5.24291070e-04
  1.96237420e-03 -3.36626056e-03 -1.96013716e-03 -1.13617070e-02
 -6.47101365e-03 -5.20093658e-04 -2.30123382e-03 -1.90768507e-03
  4.30410448e-03 -8.62217974e-03  5.05932048e-03 -1.84552511e-03
  4.67026746e-03 -1.88764097e-04 -7.84777757e-03 -9.11209360e-03
  2.86233029e-03 -1.40430266e-02 -4.67633875e-03  1.95782725e-03
 -6.56395871e-03 -1.24841612e-02 -4.28641494e-03 -1.24070197e-02
 -1.17459409e-02 -1.57176070e-02 -1.15408143e-02 -1.26306321e-02
 -5.75721613e-04  8.70864373e-03  2.06396868e-03  4.54090862e-03
 -7.28401076e-03 -4.17900179e-03 -1.90424081e-02 -4.61396109e-03
 -1.67636927e-02  7.31379376e-04 -1.16688283e-02 -1.04096876e-02
 -1.07404508e-03  8.02755542e-03  6.53799996e-03 -1.61547735e-02
  8.53621587e-03 -3.38287675e-03 -1.14910456e-03  6.19797315e-03
  3.50438245e-02  1.42242378e-02 -7.16649788e-03 -4.92820283e-03
 -1.42318653e-02  5.98593289e-03  1.38562741e-02  5.55959623e-03
  1.42336925e-02 -1.37403246e-03 -4.17417241e-03 -3.00933584e-03
  4.74400492e-03 -5.68491640e-03 -8.93740449e-03  7.42959091e-03
  8.85109417e-03 -1.69064142e-02  1.81983633e-04 -9.11187753e-03
  1.19289348e-03 -5.69437072e-03  4.92990890e-04  5.91479940e-03
 -1.29416550e-03 -5.60422381e-03 -1.02228336e-02 -1.08759226e-02
 -5.15356055e-03 -1.10771246e-02 -8.20161868e-03  4.09201393e-03
 -1.30310701e-03  2.73924693e-03 -2.44047935e-03 -7.29362480e-03
 -2.96377664e-04 -3.31297098e-03  1.88182350e-02 -4.85090818e-03
 -1.91547512e-03 -1.00110555e-02 -7.28074973e-03 -1.16656860e-02
 -1.52348233e-02 -5.83972374e-04  7.78834941e-03  2.86257500e-03
  1.19322375e-03 -2.97119399e-03 -6.27408922e-03 -3.84019944e-03
 -9.18877590e-03 -1.51693518e-03 -3.45021277e-03 -6.46261824e-03
 -4.38891444e-03 -6.00915123e-03  4.14225785e-03 -6.23251591e-03
 -4.88363067e-03  1.40228812e-02  5.87033632e-04 -4.35930910e-03
 -1.28529361e-03  1.25342584e-03 -6.02996163e-03  1.65374728e-03
  5.59818977e-03 -1.59385949e-02  9.85706132e-03 -2.26511946e-03
 -5.74018620e-03 -6.72475295e-03 -4.03863797e-03 -7.59514980e-03
  1.30307330e-02  5.28153498e-03 -8.28876905e-03 -1.18098026e-02
  1.48228817e-02  8.00374243e-03  3.00397514e-03 -2.54367595e-03
 -9.19925887e-03  9.79507715e-03 -1.48520956e-03 -1.11956121e-02
  1.11300498e-02  4.91733314e-04 -1.17717432e-02 -1.29458855e-03
 -3.44717619e-03  4.92260559e-03 -1.08454796e-02 -5.66139864e-03
 -4.53469227e-04 -1.54602146e-02  5.24106110e-03  1.91311706e-02
 -1.00992690e-03 -3.23715387e-03 -7.09809538e-04  8.20222311e-03
 -1.23550827e-02  4.69370466e-03 -2.01363917e-02  5.40884165e-03
 -5.41190524e-03  1.75488945e-02  6.85709761e-03 -9.90827009e-03
 -4.07859962e-03  6.16573915e-03 -8.08090623e-03 -1.73208769e-03
 -7.27138773e-04  1.52515073e-03  5.85164363e-03 -2.60787550e-04
 -4.50151972e-03  5.42691676e-04 -1.10680740e-02 -2.14446080e-03
 -1.33343162e-02  8.67914315e-03  2.75017880e-03 -1.43286176e-02
  3.76911857e-03  4.32393886e-03 -8.27107113e-03  1.19494405e-02
 -4.71466861e-04 -7.24235270e-03 -1.21675292e-02 -2.69817165e-03
 -8.49593151e-03  3.26342974e-03 -4.49520815e-03 -1.68009773e-02
  9.22295512e-05  3.33575718e-03  1.34800170e-02 -6.97588781e-03
  7.41132116e-03 -7.92528968e-03  9.66815744e-03 -9.71665978e-03
 -6.63656974e-03 -8.47784430e-03 -1.30425440e-03 -1.34387324e-02
 -1.20510766e-02 -1.26667870e-02 -1.19059291e-02 -6.40803110e-03
 -1.41074660e-03  1.01173567e-02 -1.55447712e-02  9.16577317e-03]
le_net5/dense_1/kernel:0
(1000, 1000)
[[ 0.0100876  -0.00361482 -0.10764173 ...  0.02500797  0.06147845
   0.01973458]
 [-0.00799055  0.11755634 -0.06112968 ... -0.04648862  0.0298168
  -0.05680805]
 [-0.01748762  0.06425338  0.00277119 ...  0.03149989 -0.02579419
  -0.01163628]
 ...
 [-0.05408558 -0.0487249  -0.03628778 ...  0.12785384 -0.00162414
  -0.09007915]
 [ 0.01545731  0.06711321 -0.03050587 ...  0.06155716 -0.10790373
  -0.04510179]
 [ 0.11407314  0.05923854  0.02971976 ...  0.11541462 -0.05342153
   0.01008046]]
le_net5/dense_1/bias:0
(1000,)
[-3.91243678e-03 -2.37191492e-03  4.83662682e-03 -9.50194150e-03
 -3.70821392e-04  4.27972153e-03 -1.90114905e-03  1.10684044e-03
 -7.86635000e-03  1.69349858e-03 -7.84727000e-03 -7.82639545e-04
  1.27967156e-03 -1.46940863e-03 -5.57516562e-03 -1.04294969e-02
  2.70316261e-03  3.51357274e-03 -1.27462549e-02 -1.00175841e-02
  4.48853336e-03 -4.47977986e-03 -3.39114922e-03 -6.71189092e-03
  1.87493679e-05 -5.73034515e-04 -3.39653017e-03 -2.76409206e-03
 -9.03091580e-03 -3.32831638e-04  5.23720216e-03  3.72539833e-03
  9.04244278e-03 -3.23589030e-03 -9.07609519e-03  9.30188457e-04
 -6.91427523e-03  3.22325970e-03  5.49850427e-03 -5.54654421e-03
  4.69534751e-03 -4.79804818e-03 -4.34468500e-04  4.46519628e-03
  3.34145734e-04  1.33338198e-03 -3.19068832e-03  4.82666027e-03
 -7.39737472e-04 -6.59744954e-03  3.06676538e-03 -1.60155853e-03
  2.83370866e-03 -1.05207339e-02  2.93692783e-03  7.97576271e-03
  3.42738873e-04  5.96361654e-03 -1.70225836e-03  4.39343881e-03
  1.14794420e-02 -1.03569692e-02 -4.49389663e-05  3.29594989e-03
 -6.80938072e-04  2.58395448e-03  1.39162730e-04 -8.70261248e-03
 -9.32722446e-03  4.08072723e-03 -3.37608275e-04 -3.31324036e-03
 -9.99259111e-03  7.17527512e-03 -8.18372145e-03  5.83604793e-04
 -2.67176074e-04 -1.42602273e-03  3.73632670e-03  4.13543731e-03
 -9.68794152e-03  4.02942207e-03 -1.00706853e-02  2.96721794e-03
 -8.04452167e-04 -2.11594161e-03  3.13399243e-03 -1.01672625e-02
  3.60688224e-04  3.30890366e-03 -7.28546688e-03 -1.00058056e-02
 -6.08315272e-03 -4.30662511e-03  2.74203345e-03  5.23936935e-03
  1.44762162e-03 -3.25985928e-03 -4.03347705e-03  1.98564329e-03
 -5.60552720e-03  3.64389666e-03 -5.96233236e-04 -1.01205548e-02
 -2.17033713e-03  1.02737173e-02 -2.65480019e-03 -1.53437257e-03
 -2.23667058e-03  3.24019883e-03 -6.90673385e-03  3.32600088e-04
  6.44598482e-03  1.67363905e-03 -1.03815421e-02 -1.03101262e-03
  5.82946744e-03  8.49086035e-04 -9.48501471e-03 -5.67212328e-03
 -9.94205708e-04 -5.84397465e-03 -6.33194903e-03 -8.36065691e-03
  3.21408687e-03  3.14062531e-03  6.21633080e-04 -4.22420958e-03
  9.41365585e-03 -4.86417767e-03 -4.61939210e-03  2.52624019e-03
  3.74847371e-03 -4.29374864e-04 -2.38550710e-03 -5.71648241e-04
 -7.48792756e-03 -4.64058510e-04  1.39685776e-02 -6.31173281e-03
 -5.86327305e-03  6.15315698e-03 -6.46963064e-03 -8.80284049e-03
  7.14358734e-03  1.58309899e-02 -5.84904291e-03  4.60068695e-05
 -6.46121055e-03 -7.58283539e-03 -1.25740990e-02 -5.21268789e-03
  9.95062990e-04  1.94325973e-03 -1.55610510e-03  8.07468407e-03
 -7.74922175e-03 -3.29646748e-03 -7.00682076e-03 -3.76138696e-03
 -6.56105019e-03 -8.62401444e-03 -4.72339476e-03 -1.96008221e-03
 -5.65177435e-03 -2.91962596e-03 -9.07897670e-03 -3.94093804e-03
 -1.19118893e-03 -2.24931049e-03 -1.00149808e-03 -8.63667578e-03
 -2.16010492e-03 -8.86726484e-04  8.20588204e-04 -6.59480086e-03
  1.89841050e-03  1.42142540e-02 -1.08374190e-02  1.43295550e-03
 -6.82876818e-03 -3.45682353e-03 -4.18013986e-03 -3.70480260e-03
  7.97864143e-03  2.32027750e-03 -1.16600553e-02  1.44996028e-03
  1.05733145e-02 -1.97681994e-03 -7.16292346e-03  9.73806623e-03
  8.78967345e-03 -1.22302945e-03  1.29030505e-02 -2.54563289e-03
  4.33570519e-03 -7.06118438e-03 -4.53387899e-03  2.11793440e-03
 -6.58276957e-03 -2.86809925e-04 -3.07379803e-03  1.42633067e-02
 -1.09048225e-02 -1.40440837e-03 -8.58498458e-03 -7.21165398e-03
  1.78434805e-03 -1.39301410e-02  1.11257122e-03  1.30066043e-03
 -2.47160043e-03 -5.00649796e-04 -7.76253582e-04  4.83275112e-03
 -3.58233287e-04 -2.12058355e-03 -6.30580680e-03 -2.31586723e-03
 -4.16115951e-03 -5.84211992e-03  4.00824985e-03  4.91183077e-04
 -1.90107326e-03  5.89393685e-03  3.58651206e-03 -1.76024763e-03
  6.59833942e-03  2.02252949e-03  1.90978206e-03  9.30523383e-04
 -1.17225908e-02  7.20670028e-03 -2.55966187e-03  7.74421438e-04
 -1.24560120e-02 -3.81627656e-03  8.08156189e-03  9.32498660e-04
 -1.81659358e-03 -9.04355478e-03  3.90012609e-03  6.50225673e-03
  2.71006045e-03  8.50644056e-03 -1.60328043e-03  9.74858552e-03
 -2.58170930e-03  2.32428149e-03  6.59722323e-03 -4.11687361e-04
 -4.93325014e-03  1.70200097e-03 -8.44850438e-04  8.17380566e-03
 -3.02773784e-04  4.07793093e-03 -6.56723604e-03  4.17414727e-03
  5.10150276e-04 -6.03614282e-03  1.97190093e-04 -3.44243506e-03
  4.03936254e-03 -4.46613319e-03 -8.75760894e-03 -7.94890430e-03
 -1.95467100e-03  3.91379232e-03 -2.49583973e-03 -2.73160753e-04
 -6.49529975e-03 -2.78811855e-03 -1.18788760e-02  4.08229791e-03
 -1.12306075e-02 -2.38352339e-03  8.34830571e-03 -4.05131932e-03
 -4.35309159e-03 -1.01702372e-02 -5.61268348e-03 -1.34636357e-03
 -7.62805389e-03 -1.14217005e-03  9.82457213e-03  6.72706915e-03
 -2.52445636e-04  4.50049434e-03  3.92724574e-03  4.51023737e-03
  7.21849361e-03  4.73660370e-03 -6.23547763e-04 -1.81687914e-03
  3.00067244e-03 -9.34676826e-03  1.30184437e-03 -8.08821525e-03
  1.02061527e-02  2.82464130e-03 -1.08356634e-03  5.63513208e-03
 -1.28917610e-02 -3.66955972e-03  4.60552890e-03 -5.06327907e-03
 -7.18697254e-03 -2.69174390e-03 -8.12436640e-03 -4.34655376e-04
  2.85097607e-03  3.14731873e-03  7.46775232e-03  6.24677748e-04
  1.25749153e-03  1.68460084e-03 -3.64419771e-03 -5.74442605e-03
 -8.29411438e-04 -4.24234616e-03  1.96902035e-03 -5.30323386e-03
 -1.85424997e-03  5.21771144e-03 -1.63819380e-02  1.91483460e-03
 -1.13329280e-03 -7.09460396e-03 -3.50154890e-03 -4.66328440e-03
 -7.55653367e-04  1.12804864e-03 -1.27902604e-03 -8.08111113e-03
  3.38072912e-03  4.22977749e-03 -3.12146707e-03  1.00108574e-03
  3.38455755e-03 -1.86577078e-03 -7.61169894e-03  3.38795641e-03
  6.22730528e-04 -2.18096795e-03 -4.87819547e-03 -4.47643828e-03
  4.33149375e-03 -8.27968866e-03 -3.57635203e-03  3.06336512e-03
 -7.88456574e-03 -5.31738438e-03 -7.64383562e-03 -2.92938994e-03
 -3.96441342e-03 -1.28325701e-04  1.41268864e-03 -8.21585767e-03
 -2.53443304e-03 -4.91408119e-03 -6.72543328e-03  7.64110358e-03
 -1.01918103e-02 -4.99760592e-03  2.26449268e-03 -1.38981815e-03
  6.79975329e-03 -3.04686651e-03 -5.78889856e-03 -7.23327976e-03
 -2.98506208e-03 -5.21816313e-03  3.59335245e-04 -5.68929943e-04
 -1.96133181e-03  8.54652934e-03  1.12203683e-03 -8.95913970e-03
 -2.87025888e-03 -1.23672851e-03 -4.22969786e-03  3.11204162e-03
 -7.02817226e-03 -1.73239578e-02  2.05478910e-03  9.03540757e-03
  2.87083304e-03 -5.34831826e-03  9.63427220e-03  4.07253066e-03
 -1.02088545e-02  3.05924565e-03  2.88282032e-03  1.39260218e-02
 -4.67870152e-03 -2.32031057e-03 -1.06049515e-02 -2.37169093e-03
 -4.62981436e-04 -1.75337158e-02  8.04040954e-03  8.74604005e-03
 -2.57350109e-03  1.85524707e-03 -6.80755358e-03 -3.35730729e-03
 -5.01611503e-03 -2.08106404e-03  3.25078773e-03 -7.93779455e-03
 -2.26263865e-03 -6.04333589e-03 -4.56742151e-03 -4.21167770e-03
  9.05862916e-03  1.19980949e-03  1.69391115e-03  1.96826900e-03
 -2.16110051e-03  1.06904889e-02 -5.88385481e-03  6.40780665e-04
  1.01115759e-02 -2.52515380e-03 -8.33668839e-03 -1.74275190e-02
  4.18816879e-03  5.41820657e-03 -8.54276400e-03  8.76353215e-03
 -8.56351573e-03  2.96770758e-03 -5.40981395e-03 -4.81688092e-03
 -1.08579476e-03  1.03029199e-02 -9.72241512e-04 -1.85199466e-03
 -3.52685479e-03  8.21509771e-03  9.82442638e-04 -2.62604887e-03
 -4.22363868e-03  1.12717152e-02  9.59127862e-03 -6.58921432e-03
  3.39035667e-03  3.78000573e-03 -6.60704682e-03  1.29490683e-04
  7.39380717e-03 -1.20730756e-03  2.35328428e-03 -4.95936163e-03
 -9.66219790e-03  5.44253970e-04  4.71183378e-03  5.03679458e-03
  2.76543852e-03 -5.07558836e-03  4.59167222e-03 -1.15384627e-02
 -1.13765635e-02 -3.52371688e-04  2.95586744e-03 -4.29734215e-03
 -5.52897900e-03  4.97582229e-03 -2.57607503e-03 -1.28316768e-02
  4.29568952e-03  1.25292195e-02 -1.09702279e-03  4.91355965e-03
  5.57319913e-03 -1.00123882e-02  1.42814987e-03 -1.25744089e-04
 -6.40912261e-03 -1.04853427e-02 -7.14475755e-03 -7.41952239e-03
  1.48074247e-03 -1.05154626e-02  2.32850225e-03  2.26632389e-03
 -5.14009316e-03 -9.80221573e-03 -6.20321603e-03 -3.89287923e-03
  9.90466331e-04  4.86554112e-03  2.43272400e-04 -1.68927889e-02
  1.28430757e-03  3.70631833e-03  1.70927553e-03 -1.70234882e-04
 -3.34697519e-03 -1.65273342e-02 -3.38539743e-04 -1.38474852e-02
 -1.23226019e-02 -8.44901893e-03 -8.63482244e-03  7.54034054e-03
 -6.27569808e-03 -2.60025100e-03 -1.53528701e-03 -7.74382940e-03
  4.84875450e-03 -2.31952127e-03  1.12098816e-04  8.95016827e-04
  7.24377763e-03  9.24049760e-04 -5.22041647e-03 -1.77633006e-03
 -1.13626092e-03  7.02150725e-03 -6.84722210e-04 -6.93799090e-03
  8.09513382e-04  4.50606365e-03  6.61250716e-03 -5.06972289e-03
 -8.49084812e-04 -1.59836886e-03 -8.25308089e-04 -2.46952847e-03
 -4.45988588e-03 -1.42764235e-02 -5.72321564e-03  5.42133674e-03
 -4.31890832e-03 -8.04193690e-03 -1.56016718e-03  1.91585254e-03
  7.53649184e-03  1.57121643e-02 -7.87313003e-03 -7.67584797e-03
 -2.65338202e-03 -1.29343681e-02 -5.05203893e-03  1.72789022e-03
 -1.53030211e-03  2.46644160e-03  2.55713775e-03 -5.17296884e-03
  2.74268165e-03  2.00129952e-03 -1.00612929e-02 -2.77609564e-03
 -1.01566669e-02 -1.83554005e-03  3.97592870e-04  2.46826634e-02
 -1.39048789e-03  1.24586942e-02 -1.02165472e-02 -3.70007823e-03
 -2.47472897e-03 -1.45498815e-03 -5.31171076e-03  7.72781856e-03
  3.55385873e-03 -4.85691271e-04 -2.82482710e-03 -4.24839836e-03
 -4.39508865e-03 -6.18824223e-03  2.52137706e-03  3.33627942e-03
 -2.32735998e-03  2.20126323e-02 -1.51249105e-02 -4.01786622e-03
  3.37857381e-03 -6.34871935e-03 -3.04739643e-03 -8.30829144e-03
 -1.11217694e-02 -3.65599897e-03 -1.21380051e-03 -6.70739263e-03
  6.27574418e-03  9.00259521e-03 -4.73536318e-03  7.27864855e-04
  7.83216394e-03  9.63836815e-03  1.17951806e-03  3.74423759e-03
  8.86444817e-04 -3.50193982e-03 -4.11945075e-04  1.44101260e-03
 -3.44261271e-03 -7.59063102e-03 -1.39097357e-02  1.87902164e-03
  2.38528792e-02 -4.80187545e-03 -1.01031009e-02  3.00607993e-03
 -6.90853270e-03 -7.36772828e-03 -1.13456631e-02 -3.00310762e-03
  9.40418046e-04 -5.50874230e-03 -4.12175292e-03 -1.03500672e-02
 -6.35148538e-03 -8.41497502e-04  2.20491827e-04 -8.04444030e-03
 -7.97799323e-03  9.36204940e-03 -1.00298794e-02 -1.28498869e-02
 -5.52653195e-03  3.15619004e-03 -5.19831083e-04 -1.80895627e-03
 -8.42145178e-04  5.06668305e-03 -4.01874539e-03 -3.57465935e-03
  3.47478082e-03 -5.83031587e-03  1.00064287e-02  1.20613095e-03
  3.99478106e-03  1.22352960e-02 -1.91794056e-03 -1.17108895e-04
  1.59358159e-02 -7.53856613e-04 -2.04260251e-03  2.29113102e-02
  3.92223522e-03  1.43759279e-03 -3.35647422e-03  1.16041368e-02
 -2.62122694e-03 -3.41172167e-03 -7.84929283e-03  5.15843974e-03
 -8.89071554e-04 -5.54681849e-03 -4.87222150e-03 -4.97928355e-04
 -3.55547341e-03  6.05369220e-03 -5.00683440e-03 -5.91241661e-03
  2.07549799e-03  4.13223635e-03 -5.73423691e-03 -8.78513046e-03
 -4.51465743e-03  4.82596952e-04 -7.78707163e-03  4.10332996e-03
  1.08347097e-02  1.15079395e-02  2.26135319e-03  4.08459746e-04
  2.39882106e-03 -9.33114346e-03 -2.89779808e-03 -1.12359012e-02
  1.46372803e-02  1.52680662e-03  5.38598455e-04 -4.28374484e-03
 -5.76651888e-03  6.91730110e-03  5.41413028e-04  3.51920188e-03
  6.94772461e-03 -1.20858056e-03 -6.18436048e-03  4.74512723e-04
  1.13283060e-02  1.57812182e-02  2.30106409e-03  1.76177348e-03
  8.89080390e-03  4.95773973e-03  5.22525329e-03 -4.29726718e-03
 -1.08434947e-03 -4.07516584e-03 -5.05939499e-03 -3.43961688e-03
 -1.25232944e-03 -4.50214464e-03 -8.63686949e-03 -4.99195745e-03
 -1.01209953e-02  1.04857702e-03 -1.28704601e-03 -1.00415992e-02
  1.19682122e-03 -1.05480338e-02  8.02334212e-03 -1.33615301e-03
  4.55416879e-03 -6.38130680e-03 -3.82933137e-03  2.32019043e-03
 -8.21707677e-03 -4.14722192e-04 -5.93629526e-03 -4.61071543e-03
  3.68503691e-03  3.28384875e-03 -2.87972833e-03 -4.43791738e-03
  1.26528339e-02 -9.71508771e-03  7.65451696e-03  3.47195379e-03
  2.30049924e-03 -3.19278240e-03 -3.16476042e-04 -7.14605302e-03
 -1.42657310e-02  2.56810081e-03  6.25631306e-03  2.04243418e-03
  1.15593849e-02  3.05817043e-03 -1.01163303e-02  2.51699984e-03
 -4.82688379e-03 -3.39330849e-03 -9.06687521e-04  4.25464800e-03
  8.07988737e-03  4.13422647e-04 -4.50340984e-03 -4.60719876e-03
 -1.03004547e-02 -1.62713311e-03  1.00182118e-02 -1.11036766e-02
 -6.75712992e-03 -5.40436618e-03 -2.70119403e-03  2.56555900e-03
 -3.75350122e-03 -5.39600523e-03  1.59471612e-02 -1.98419136e-03
 -2.49753776e-03 -4.60942043e-03 -8.77638347e-03 -1.05532110e-02
  1.41516700e-02  7.40146078e-03 -5.03974129e-03 -5.93070406e-03
  2.09368882e-03  8.58728774e-03  3.61694093e-03  6.61702268e-03
 -3.98143567e-03  5.10283466e-03  1.30255073e-02  5.05597796e-03
 -6.98079588e-04 -4.90067294e-03  4.51336149e-03  1.08022457e-02
 -1.37624296e-03 -1.24389655e-04  4.62283759e-04 -2.64919153e-03
 -5.06352354e-03  7.06506521e-03  6.34744880e-04 -7.88984075e-03
 -5.00738574e-03 -7.07877614e-03 -1.06365168e-02  8.58453289e-03
 -1.24616618e-03  1.00703957e-03  8.74702062e-04  4.77719493e-03
 -1.23536168e-02 -1.93571195e-03 -1.34775825e-02  9.43002233e-04
 -3.78165185e-03  6.26156246e-03  1.96551415e-03 -4.29809479e-05
 -1.46284210e-03 -3.74571164e-03 -3.24440002e-03 -4.46244748e-03
  1.37932887e-02 -5.30132093e-03  6.00560335e-04  7.45164871e-04
 -1.26618743e-02 -1.64890080e-03 -3.66762071e-03 -1.23757552e-02
  1.55734480e-04  6.87971292e-03 -8.86699278e-03 -2.75760074e-03
 -3.58609436e-03  2.79131182e-03  1.59967341e-03  8.93433020e-03
 -4.74334648e-03  1.59895862e-03  5.31412242e-03 -2.34158314e-03
  3.23158965e-05 -5.22116106e-03 -5.40761696e-03  1.31093338e-03
 -2.91433651e-03 -1.36120208e-02 -4.94025834e-03 -5.93195343e-03
  5.61796012e-04  7.02666445e-03 -1.59305840e-04 -2.89419852e-03
  2.02919444e-04 -7.49477139e-03  7.65142322e-04  2.22633011e-04
 -5.55199385e-03  2.08976143e-03 -7.85568636e-03  6.75335818e-04
 -3.31510237e-04  7.70048704e-03  2.26656534e-03 -2.86443415e-03
 -7.00862904e-04 -1.53877365e-03 -6.35619089e-03  1.54155502e-02
  1.45074155e-03  1.79341668e-03 -6.03905786e-03 -3.19958571e-03
  1.29167316e-02  1.54353841e-03 -7.23843789e-03  1.65142324e-02
 -3.19948397e-03 -6.43360056e-03 -2.31585209e-03 -3.16904014e-04
 -2.60137697e-03  2.30880734e-03 -2.67948234e-03 -8.12575046e-04
 -3.60196014e-03 -2.39430880e-03 -8.34522955e-03  4.76057734e-03
  9.78312688e-04 -8.78928986e-04 -1.82268694e-02 -5.71727473e-03
  3.53340735e-03 -1.22100185e-03 -5.16340090e-03 -1.36286614e-03
  9.36224684e-03 -4.35407739e-03 -7.87699781e-03 -7.37997098e-03
  8.29335395e-03  2.04615854e-03 -2.95098010e-03  1.04517546e-02
 -5.25168050e-03 -3.35582974e-03 -9.73429251e-03 -9.63287521e-03
 -2.49516801e-04 -7.85778370e-03  5.11762640e-03  9.79276467e-03
 -5.12779737e-03 -1.10877287e-02 -1.19459666e-02 -9.02712927e-04
 -3.71478219e-03 -5.87605406e-03 -1.13155786e-02 -3.19773215e-03
  3.17804515e-03 -2.74653430e-04  1.61262939e-03  1.94800198e-02
 -8.37969501e-03  4.16472927e-03  4.27168282e-03 -3.08619370e-03
 -1.13924351e-02 -6.97267009e-03 -1.59752872e-02 -1.48305362e-02
  4.29462641e-03 -6.56217709e-03 -7.08472123e-03  3.17831244e-03
 -8.11990583e-04  9.16131213e-03 -4.16613591e-04 -7.14762928e-03
 -1.33188916e-02  5.58000349e-04 -3.62506649e-03  5.91714401e-03
  2.42858613e-03  3.08467913e-03 -6.80854777e-03 -2.44984776e-03
 -1.15583395e-03 -7.34437769e-03 -4.42959182e-03 -4.02990729e-03
 -1.74090248e-02 -3.17494641e-03 -1.40909301e-02 -1.11616962e-03
  5.74468577e-04 -1.31345838e-02 -8.24970368e-04 -3.21334833e-03
  8.50830041e-03 -1.00938731e-03  4.42248490e-03 -1.40122243e-03
  8.46625119e-03 -9.47941374e-03  2.24413071e-03 -4.76862490e-03
 -5.86524513e-03  1.01417983e-02  1.31125348e-02 -1.02438014e-02
  1.15770800e-03  1.51057914e-03  1.08733466e-02 -2.35853833e-03
 -8.91560037e-03 -2.03994522e-03  7.71496166e-03 -4.97882953e-03
  3.39315651e-04  1.11515250e-03  5.59198530e-03 -5.12981880e-03
  5.33375284e-03 -3.03661276e-04 -5.04618324e-03 -1.66163710e-03
  1.64453983e-02  4.08691354e-03 -9.40606557e-03  2.64789071e-03
  1.49345922e-03  2.97664868e-04 -7.78888934e-04 -2.36501452e-03
  6.47195661e-03 -7.57296663e-03 -9.75630153e-03 -1.23058981e-03
  1.18129374e-02 -7.97718391e-03 -1.05106458e-02 -4.95071989e-03
 -1.83705252e-03  7.60039361e-03  2.39404640e-03 -8.60297028e-03
  2.61782057e-04  6.34560222e-03 -8.25605169e-03 -1.49292313e-03]
le_net5/dense_2/kernel:0
(1000, 65)
[[-0.01489418 -0.02993296  0.06541932 ...  0.02561267  0.04726388
   0.12594149]
 [-0.08460741  0.06198211  0.03409848 ...  0.04814591  0.03490271
  -0.02300922]
 [-0.05455394  0.03923411  0.06627045 ... -0.10002064  0.09681382
   0.05696869]
 ...
 [ 0.04262417 -0.00788369  0.09839857 ...  0.01554446  0.13056418
  -0.14069048]
 [-0.1012674   0.03125803 -0.11536025 ... -0.07910933  0.10185866
  -0.04632953]
 [ 0.02445759  0.10045376  0.09133573 ... -0.04276593 -0.09243926
   0.04607212]]
le_net5/dense_2/bias:0
(65,)
[ 2.9316461e-03  6.6522984e-03 -2.1652607e-03 -1.5581949e-03
 -6.1766952e-03  4.2502494e-03 -6.6459328e-03  2.1817463e-03
  3.7320845e-03  7.9928329e-03 -7.6286257e-03  5.7225376e-03
 -6.7015667e-03  4.3674037e-03  7.6168450e-04 -6.5579521e-03
  7.4025672e-03  5.5921433e-04 -4.2804754e-03 -1.9544859e-03
  2.6217320e-03  5.7731359e-03  4.5412686e-03 -8.6603395e-04
  2.1427355e-03  9.9420012e-04  3.4635479e-03  6.9628670e-03
  7.4510621e-03  4.4228858e-04  2.2170471e-03 -6.2519414e-03
 -6.3381204e-03 -1.1886166e-03  1.4865128e-03 -3.8406849e-03
  8.0893887e-03 -2.7366069e-03 -6.6712443e-03  6.4034159e-03
 -2.6432895e-03 -6.6800173e-03  4.1004042e-03  7.6859463e-03
 -3.6562411e-03  2.7293754e-03  5.6041918e-05 -2.4314519e-04
  3.4791087e-03  8.1622424e-03  3.0424106e-03  4.3097921e-03
 -4.2285812e-03 -6.3483664e-03 -1.1835909e-03  1.7344163e-03
  3.9744382e-03  4.9696239e-03 -2.1995264e-04  3.4471524e-03
  8.0534732e-03 -2.5515431e-03 -4.4565490e-03 -8.7815977e-04
  2.5420152e-03]
